Language model created by QuickLM on Fri Jun 14 22:01:20 EDT 2019
Copyright (c) 1996-2010 Carnegie Mellon University and Alexander I. Rudnicky

The model is in standard ARPA format, designed by Doug Paul while he was at MITRE.

The code that was used to produce this language model is available in Open Source.
Please visit http://www.speech.cs.cmu.edu/tools/ for more information

The (fixed) discount mass is 0.5. The backoffs are computed using the ratio method.
This model based on a corpus of 24 sentences and 44 words

\data\
ngram 1=44
ngram 2=69
ngram 3=62

\1-grams:
-0.9890 </s> -0.3010
-0.9890 <s> -0.2499
-2.0682 A -0.2973
-2.3692 AM -0.2992
-2.3692 AT -0.2540
-2.0682 BE -0.2973
-2.3692 CONTINUE -0.2540
-2.3692 DECREASE -0.2973
-2.3692 DOWN -0.2540
-2.0682 GOING -0.2954
-2.3692 I? -0.2540
-2.3692 INCREASE -0.2973
-1.1388 JARVIS -0.2683
-2.3692 JARVIS, -0.2992
-2.3692 JOKE -0.2540
-2.3692 MAKE -0.2973
-2.0682 ME -0.2499
-2.3692 MORNING -0.2540
-2.3692 NIGHT -0.2540
-2.3692 NOTE -0.2540
-2.3692 PANDORA -0.2540
-2.3692 PAUSE -0.2540
-2.0682 PLAY -0.2973
-2.3692 RECORD -0.2540
-2.3692 REMIND -0.2973
-2.3692 REPORT -0.2540
-2.3692 SKIP -0.2540
-2.3692 SLOW -0.2992
-2.3692 SPEED -0.2992
-2.3692 SPOTIFY -0.2540
-2.3692 STATUS -0.2992
-2.3692 STOP -0.2540
-2.3692 TELL -0.2973
-2.0682 THE -0.2973
-1.8921 TO -0.2499
-2.3692 TODAY? -0.2540
-2.3692 TOMORROW -0.2540
-2.3692 TOMORROW? -0.2540
-2.3692 UP -0.2540
-2.0682 VOLUME -0.2540
-2.0682 WEATHER -0.2973
-2.0682 WHAT'S -0.2973
-2.3692 WHERE -0.2992
-2.3692 YESTERDAY -0.2540

\2-grams:
-1.6812 <s> AT 0.0000
-0.4508 <s> JARVIS 0.0000
-1.6812 <s> JARVIS, 0.0000
-1.6812 <s> MORNING 0.0000
-1.6812 <s> NIGHT 0.0000
-1.6812 <s> TO -0.2218
-1.6812 <s> TOMORROW 0.0000
-1.6812 <s> YESTERDAY 0.0000
-0.6021 A JOKE 0.0000
-0.6021 A NOTE 0.0000
-0.3010 AM I? 0.0000
-0.3010 AT </s> -0.3010
-0.6021 BE TODAY? 0.0000
-0.6021 BE TOMORROW? 0.0000
-0.3010 CONTINUE </s> -0.3010
-0.3010 DECREASE VOLUME 0.0000
-0.3010 DOWN </s> -0.3010
-0.3010 GOING TO -0.1249
-0.3010 I? </s> -0.3010
-0.3010 INCREASE VOLUME 0.0000
-1.5315 JARVIS CONTINUE 0.0000
-1.5315 JARVIS DECREASE 0.0000
-1.5315 JARVIS INCREASE 0.0000
-1.5315 JARVIS MAKE 0.0000
-1.5315 JARVIS PAUSE 0.0000
-1.2304 JARVIS PLAY 0.0000
-1.5315 JARVIS RECORD 0.0000
-1.5315 JARVIS REMIND 0.0000
-1.5315 JARVIS SKIP 0.0000
-1.5315 JARVIS SLOW 0.0000
-1.5315 JARVIS SPEED 0.0000
-1.5315 JARVIS STOP 0.0000
-1.5315 JARVIS TELL 0.0000
-1.2304 JARVIS WHAT'S 0.0000
-1.5315 JARVIS WHERE 0.0000
-0.3010 JARVIS, STATUS 0.0000
-0.3010 JOKE </s> -0.3010
-0.3010 MAKE A -0.1761
-0.6021 ME </s> -0.3010
-0.6021 ME A -0.1761
-0.3010 MORNING </s> -0.3010
-0.3010 NIGHT </s> -0.3010
-0.3010 NOTE </s> -0.3010
-0.3010 PANDORA </s> -0.3010
-0.3010 PAUSE </s> -0.3010
-0.6021 PLAY PANDORA 0.0000
-0.6021 PLAY SPOTIFY 0.0000
-0.3010 RECORD </s> -0.3010
-0.3010 REMIND ME -0.1761
-0.3010 REPORT </s> -0.3010
-0.3010 SKIP </s> -0.3010
-0.3010 SLOW DOWN 0.0000
-0.3010 SPEED UP 0.0000
-0.3010 SPOTIFY </s> -0.3010
-0.3010 STATUS REPORT 0.0000
-0.3010 STOP </s> -0.3010
-0.3010 TELL ME -0.1761
-0.3010 THE WEATHER 0.0000
-0.7782 TO </s> -0.3010
-0.4771 TO BE 0.0000
-0.3010 TODAY? </s> -0.3010
-0.3010 TOMORROW </s> -0.3010
-0.3010 TOMORROW? </s> -0.3010
-0.3010 UP </s> -0.3010
-0.3010 VOLUME </s> -0.3010
-0.3010 WEATHER GOING 0.0000
-0.3010 WHAT'S THE 0.0000
-0.3010 WHERE AM 0.0000
-0.3010 YESTERDAY </s> -0.3010

\3-grams:
-0.3010 <s> AT </s>
-1.5315 <s> JARVIS CONTINUE
-1.5315 <s> JARVIS DECREASE
-1.5315 <s> JARVIS INCREASE
-1.5315 <s> JARVIS MAKE
-1.5315 <s> JARVIS PAUSE
-1.2304 <s> JARVIS PLAY
-1.5315 <s> JARVIS RECORD
-1.5315 <s> JARVIS REMIND
-1.5315 <s> JARVIS SKIP
-1.5315 <s> JARVIS SLOW
-1.5315 <s> JARVIS SPEED
-1.5315 <s> JARVIS STOP
-1.5315 <s> JARVIS TELL
-1.2304 <s> JARVIS WHAT'S
-1.5315 <s> JARVIS WHERE
-0.3010 <s> JARVIS, STATUS
-0.3010 <s> MORNING </s>
-0.3010 <s> NIGHT </s>
-0.3010 <s> TO </s>
-0.3010 <s> TOMORROW </s>
-0.3010 <s> YESTERDAY </s>
-0.3010 A JOKE </s>
-0.3010 A NOTE </s>
-0.3010 AM I? </s>
-0.3010 BE TODAY? </s>
-0.3010 BE TOMORROW? </s>
-0.3010 DECREASE VOLUME </s>
-0.3010 GOING TO BE
-0.3010 INCREASE VOLUME </s>
-0.3010 JARVIS CONTINUE </s>
-0.3010 JARVIS DECREASE VOLUME
-0.3010 JARVIS INCREASE VOLUME
-0.3010 JARVIS MAKE A
-0.3010 JARVIS PAUSE </s>
-0.6021 JARVIS PLAY PANDORA
-0.6021 JARVIS PLAY SPOTIFY
-0.3010 JARVIS RECORD </s>
-0.3010 JARVIS REMIND ME
-0.3010 JARVIS SKIP </s>
-0.3010 JARVIS SLOW DOWN
-0.3010 JARVIS SPEED UP
-0.3010 JARVIS STOP </s>
-0.3010 JARVIS TELL ME
-0.3010 JARVIS WHAT'S THE
-0.3010 JARVIS WHERE AM
-0.3010 JARVIS, STATUS REPORT
-0.3010 MAKE A NOTE
-0.3010 ME A JOKE
-0.3010 PLAY PANDORA </s>
-0.3010 PLAY SPOTIFY </s>
-0.3010 REMIND ME </s>
-0.3010 SLOW DOWN </s>
-0.3010 SPEED UP </s>
-0.3010 STATUS REPORT </s>
-0.3010 TELL ME A
-0.3010 THE WEATHER GOING
-0.6021 TO BE TODAY?
-0.6021 TO BE TOMORROW?
-0.3010 WEATHER GOING TO
-0.3010 WHAT'S THE WEATHER
-0.3010 WHERE AM I?

\end\
